digraph Tree {
node [shape=box, style="filled, rounded", color="black", fontname=helvetica] ;
edge [fontname=helvetica] ;
0 [label="sepal length (cm) <= 5.55\ngini = 0.67\nsamples = 95\nvalue = [51, 52, 47]\nclass = versicolor", fillcolor="#fdfffe"] ;
1 [label="sepal width (cm) <= 2.85\ngini = 0.33\nsamples = 38\nvalue = [50, 13, 0]\nclass = setosa", fillcolor="#eca26c"] ;
0 -> 1 [labeldistance=2.5, labelangle=45, headlabel="True"] ;
2 [label="gini = 0.0\nsamples = 9\nvalue = [0, 13, 0]\nclass = versicolor", fillcolor="#39e581"] ;
1 -> 2 ;
3 [label="gini = 0.0\nsamples = 29\nvalue = [50, 0, 0]\nclass = setosa", fillcolor="#e58139"] ;
1 -> 3 ;
4 [label="petal length (cm) <= 4.95\ngini = 0.51\nsamples = 57\nvalue = [1, 39, 47]\nclass = virginica", fillcolor="#eadefb"] ;
0 -> 4 [labeldistance=2.5, labelangle=-45, headlabel="False"] ;
5 [label="petal length (cm) <= 4.75\ngini = 0.25\nsamples = 29\nvalue = [1, 36, 5]\nclass = versicolor", fillcolor="#59e995"] ;
4 -> 5 ;
6 [label="sepal width (cm) <= 3.9\ngini = 0.06\nsamples = 21\nvalue = [1, 29, 0]\nclass = versicolor", fillcolor="#40e685"] ;
5 -> 6 ;
7 [label="gini = 0.0\nsamples = 20\nvalue = [0, 29, 0]\nclass = versicolor", fillcolor="#39e581"] ;
6 -> 7 ;
8 [label="gini = 0.0\nsamples = 1\nvalue = [1, 0, 0]\nclass = setosa", fillcolor="#e58139"] ;
6 -> 8 ;
9 [label="sepal width (cm) <= 3.05\ngini = 0.49\nsamples = 8\nvalue = [0, 7, 5]\nclass = versicolor", fillcolor="#c6f8db"] ;
5 -> 9 ;
10 [label="sepal length (cm) <= 6.25\ngini = 0.41\nsamples = 6\nvalue = [0, 2, 5]\nclass = virginica", fillcolor="#b388ef"] ;
9 -> 10 ;
11 [label="gini = 0.0\nsamples = 4\nvalue = [0, 0, 5]\nclass = virginica", fillcolor="#8139e5"] ;
10 -> 11 ;
12 [label="gini = 0.0\nsamples = 2\nvalue = [0, 2, 0]\nclass = versicolor", fillcolor="#39e581"] ;
10 -> 12 ;
13 [label="gini = 0.0\nsamples = 2\nvalue = [0, 5, 0]\nclass = versicolor", fillcolor="#39e581"] ;
9 -> 13 ;
14 [label="sepal length (cm) <= 6.05\ngini = 0.12\nsamples = 28\nvalue = [0, 3, 42]\nclass = virginica", fillcolor="#8a47e7"] ;
4 -> 14 ;
15 [label="sepal length (cm) <= 5.9\ngini = 0.48\nsamples = 3\nvalue = [0, 3, 2]\nclass = versicolor", fillcolor="#bdf6d5"] ;
14 -> 15 ;
16 [label="gini = 0.0\nsamples = 2\nvalue = [0, 0, 2]\nclass = virginica", fillcolor="#8139e5"] ;
15 -> 16 ;
17 [label="gini = 0.0\nsamples = 1\nvalue = [0, 3, 0]\nclass = versicolor", fillcolor="#39e581"] ;
15 -> 17 ;
18 [label="gini = 0.0\nsamples = 25\nvalue = [0, 0, 40]\nclass = virginica", fillcolor="#8139e5"] ;
14 -> 18 ;
}